<?xml version="1.0" encoding="UTF-8" standalone="yes"?>
<PMML xmlns="http://www.dmg.org/PMML-4_3" xmlns:data="http://jpmml.org/jpmml-model/InlineTable" version="4.3">
	<Header>
		<Application name="JPMML-SkLearn" version="1.5.19"/>
		<Timestamp>2019-08-15T05:42:38Z</Timestamp>
	</Header>
	<DataDictionary>
		<DataField name="y" optype="continuous" dataType="double"/>
		<DataField name="x1" optype="continuous" dataType="float"/>
		<DataField name="x2" optype="continuous" dataType="float"/>
		<DataField name="x3" optype="continuous" dataType="float"/>
		<DataField name="x4" optype="continuous" dataType="float"/>
		<DataField name="x5" optype="continuous" dataType="float"/>
	</DataDictionary>
	<TransformationDictionary/>
	<MiningModel functionName="regression">
		<MiningSchema>
			<MiningField name="y" usageType="target"/>
			<MiningField name="x2"/>
			<MiningField name="x1"/>
			<MiningField name="x3"/>
			<MiningField name="x5"/>
			<MiningField name="x4"/>
		</MiningSchema>
		<LocalTransformations>
			<DerivedField name="double(x2)" optype="continuous" dataType="double">
				<FieldRef field="x2"/>
			</DerivedField>
			<DerivedField name="double(x1)" optype="continuous" dataType="double">
				<FieldRef field="x1"/>
			</DerivedField>
			<DerivedField name="double(x3)" optype="continuous" dataType="double">
				<FieldRef field="x3"/>
			</DerivedField>
			<DerivedField name="double(x5)" optype="continuous" dataType="double">
				<FieldRef field="x5"/>
			</DerivedField>
			<DerivedField name="double(x4)" optype="continuous" dataType="double">
				<FieldRef field="x4"/>
			</DerivedField>
		</LocalTransformations>
		<Segmentation multipleModelMethod="average">
			<Segment id="1">
				<True/>
				<TreeModel functionName="regression" missingValueStrategy="nullPrediction" noTrueChildStrategy="returnLastPrediction">
					<MiningSchema>
						<MiningField name="double(x2)"/>
						<MiningField name="double(x1)"/>
						<MiningField name="double(x3)"/>
						<MiningField name="double(x5)"/>
					</MiningSchema>
					<Node score="755.543405">
						<True/>
						<Node score="37.03504616">
							<SimplePredicate field="double(x2)" operator="lessOrEqual" value="8.5"/>
							<Node score="30.92229166">
								<SimplePredicate field="double(x1)" operator="lessOrEqual" value="5.0"/>
								<Node score="245.9845335">
									<SimplePredicate field="double(x2)" operator="lessOrEqual" value="6.5"/>
									<Node score="403.09849410000004">
										<SimplePredicate field="double(x1)" operator="lessOrEqual" value="3.5"/>
									</Node>
								</Node>
							</Node>
							<Node score="2.948244036">
								<SimplePredicate field="double(x1)" operator="lessOrEqual" value="7.0"/>
							</Node>
						</Node>
						<Node score="416.0763731">
							<SimplePredicate field="double(x3)" operator="lessOrEqual" value="9.0"/>
							<Node score="739.1221529000001">
								<SimplePredicate field="double(x1)" operator="lessOrEqual" value="6.5"/>
								<Node score="418.5411093">
									<SimplePredicate field="double(x1)" operator="lessOrEqual" value="5.5"/>
									<Node score="515.3731138999999">
										<SimplePredicate field="double(x1)" operator="lessOrEqual" value="4.0"/>
									</Node>
								</Node>
								<Node score="696.2238514999999">
									<SimplePredicate field="double(x2)" operator="lessOrEqual" value="13.5"/>
								</Node>
							</Node>
							<Node score="680.3693606">
								<SimplePredicate field="double(x2)" operator="lessOrEqual" value="13.5"/>
								<Node score="407.4099352">
									<SimplePredicate field="double(x1)" operator="lessOrEqual" value="8.0"/>
								</Node>
							</Node>
						</Node>
						<Node score="657.2481623">
							<SimplePredicate field="double(x5)" operator="lessOrEqual" value="4.5"/>
							<Node score="579.5692184">
								<SimplePredicate field="double(x1)" operator="lessOrEqual" value="4.5"/>
							</Node>
						</Node>
						<Node score="91.77418955">
							<SimplePredicate field="double(x1)" operator="lessOrEqual" value="9.5"/>
							<Node score="120.45212206000001">
								<SimplePredicate field="double(x1)" operator="lessOrEqual" value="7.5"/>
								<Node score="117.62555277333335">
									<SimplePredicate field="double(x1)" operator="lessOrEqual" value="4.5"/>
								</Node>
							</Node>
						</Node>
					</Node>
				</TreeModel>
			</Segment>
			<Segment id="2">
				<True/>
				<TreeModel functionName="regression" missingValueStrategy="nullPrediction" noTrueChildStrategy="returnLastPrediction">
					<MiningSchema>
						<MiningField name="double(x2)"/>
						<MiningField name="double(x1)"/>
						<MiningField name="double(x3)"/>
						<MiningField name="double(x4)"/>
					</MiningSchema>
					<Node score="755.543405">
						<True/>
						<Node score="354.41912060000004">
							<SimplePredicate field="double(x2)" operator="lessOrEqual" value="12.5"/>
							<Node score="680.3693606">
								<SimplePredicate field="double(x3)" operator="lessOrEqual" value="25.0"/>
								<Node score="93.38069469">
									<SimplePredicate field="double(x1)" operator="lessOrEqual" value="8.5"/>
									<Node score="407.4099352">
										<SimplePredicate field="double(x3)" operator="lessOrEqual" value="9.0"/>
										<Node score="37.03504616">
											<SimplePredicate field="double(x2)" operator="lessOrEqual" value="8.5"/>
											<Node score="383.68975819999997">
												<SimplePredicate field="double(x2)" operator="lessOrEqual" value="6.5"/>
												<Node score="245.9845335">
													<SimplePredicate field="double(x2)" operator="lessOrEqual" value="5.0"/>
												</Node>
												<Node score="403.09849410000004">
													<SimplePredicate field="double(x1)" operator="lessOrEqual" value="4.5"/>
												</Node>
											</Node>
											<Node score="30.92229166">
												<SimplePredicate field="double(x2)" operator="lessOrEqual" value="7.5"/>
											</Node>
											<Node score="301.2901784">
												<SimplePredicate field="double(x1)" operator="lessOrEqual" value="6.0"/>
											</Node>
										</Node>
										<Node score="418.5411093">
											<SimplePredicate field="double(x1)" operator="lessOrEqual" value="6.0"/>
										</Node>
									</Node>
									<Node score="108.78903796">
										<SimplePredicate field="double(x1)" operator="lessOrEqual" value="4.5"/>
									</Node>
								</Node>
							</Node>
							<Node score="657.2481623">
								<SimplePredicate field="double(x4)" operator="lessOrEqual" value="3.5"/>
							</Node>
							<Node score="656.7432391">
								<SimplePredicate field="double(x2)" operator="lessOrEqual" value="8.0"/>
							</Node>
							<Node score="418.05766989999995">
								<SimplePredicate field="double(x1)" operator="lessOrEqual" value="4.5"/>
							</Node>
						</Node>
						<Node score="717.2404052">
							<SimplePredicate field="double(x1)" operator="lessOrEqual" value="4.5"/>
						</Node>
						<Node score="739.1221529000001">
							<SimplePredicate field="double(x3)" operator="lessOrEqual" value="9.0"/>
						</Node>
					</Node>
				</TreeModel>
			</Segment>
			<Segment id="3">
				<True/>
				<TreeModel functionName="regression" missingValueStrategy="nullPrediction" noTrueChildStrategy="returnLastPrediction">
					<MiningSchema>
						<MiningField name="double(x2)"/>
						<MiningField name="double(x1)"/>
						<MiningField name="double(x3)"/>
					</MiningSchema>
					<Node score="755.543405">
						<True/>
						<Node score="354.41912060000004">
							<SimplePredicate field="double(x2)" operator="lessOrEqual" value="12.5"/>
							<Node score="680.3693606">
								<SimplePredicate field="double(x3)" operator="lessOrEqual" value="9.0"/>
								<Node score="37.03504616">
									<SimplePredicate field="double(x1)" operator="lessOrEqual" value="8.5"/>
									<Node score="383.68975819999997">
										<SimplePredicate field="double(x1)" operator="lessOrEqual" value="7.0"/>
										<Node score="245.9845335">
											<SimplePredicate field="double(x2)" operator="lessOrEqual" value="5.0"/>
										</Node>
										<Node score="376.4530252">
											<SimplePredicate field="double(x1)" operator="lessOrEqual" value="2.5"/>
										</Node>
										<Node score="418.5411093">
											<SimplePredicate field="double(x1)" operator="lessOrEqual" value="5.5"/>
											<Node score="403.0984941">
												<SimplePredicate field="double(x2)" operator="lessOrEqual" value="7.5"/>
											</Node>
										</Node>
									</Node>
								</Node>
							</Node>
							<Node score="91.77418955">
								<SimplePredicate field="double(x3)" operator="lessOrEqual" value="25.0"/>
								<Node score="99.95252314666668">
									<SimplePredicate field="double(x1)" operator="lessOrEqual" value="4.5"/>
								</Node>
								<Node score="174.5949768">
									<SimplePredicate field="double(x1)" operator="lessOrEqual" value="7.5"/>
								</Node>
							</Node>
						</Node>
						<Node score="739.1221529000001">
							<SimplePredicate field="double(x1)" operator="lessOrEqual" value="7.5"/>
							<Node score="717.2404052">
								<SimplePredicate field="double(x1)" operator="lessOrEqual" value="4.5"/>
							</Node>
						</Node>
						<Node score="416.0763731">
							<SimplePredicate field="double(x1)" operator="lessOrEqual" value="9.5"/>
						</Node>
					</Node>
				</TreeModel>
			</Segment>
			<Segment id="4">
				<True/>
				<TreeModel functionName="regression" missingValueStrategy="nullPrediction" noTrueChildStrategy="returnLastPrediction">
					<MiningSchema>
						<MiningField name="double(x2)"/>
						<MiningField name="double(x1)"/>
						<MiningField name="double(x3)"/>
						<MiningField name="double(x5)"/>
					</MiningSchema>
					<Node score="752.983016">
						<True/>
						<Node score="91.77418955">
							<SimplePredicate field="double(x1)" operator="lessOrEqual" value="9.5"/>
							<Node score="657.2481623">
								<SimplePredicate field="double(x5)" operator="lessOrEqual" value="4.5"/>
								<Node score="354.41912060000004">
									<SimplePredicate field="double(x3)" operator="lessOrEqual" value="61.0"/>
									<Node score="596.4317381">
										<SimplePredicate field="double(x2)" operator="lessOrEqual" value="8.5"/>
									</Node>
									<Node score="418.05766989999995">
										<SimplePredicate field="double(x1)" operator="lessOrEqual" value="4.5"/>
									</Node>
								</Node>
								<Node score="579.5692184">
									<SimplePredicate field="double(x1)" operator="lessOrEqual" value="4.5"/>
								</Node>
							</Node>
							<Node score="416.0763731">
								<SimplePredicate field="double(x3)" operator="lessOrEqual" value="9.0"/>
								<Node score="383.68975819999997">
									<SimplePredicate field="double(x2)" operator="lessOrEqual" value="8.5"/>
									<Node score="301.2901784">
										<SimplePredicate field="double(x1)" operator="lessOrEqual" value="5.0"/>
									</Node>
								</Node>
								<Node score="717.2404052">
									<SimplePredicate field="double(x1)" operator="lessOrEqual" value="4.0"/>
									<Node score="515.3731138999999">
										<SimplePredicate field="double(x2)" operator="lessOrEqual" value="13.5"/>
									</Node>
								</Node>
								<Node score="680.3693606">
									<SimplePredicate field="double(x2)" operator="lessOrEqual" value="13.5"/>
									<Node score="418.5411093">
										<SimplePredicate field="double(x1)" operator="lessOrEqual" value="7.0"/>
									</Node>
								</Node>
							</Node>
							<Node score="114.09094684800002">
								<SimplePredicate field="double(x1)" operator="lessOrEqual" value="4.5"/>
							</Node>
							<Node score="93.38069469">
								<SimplePredicate field="double(x1)" operator="lessOrEqual" value="7.5"/>
							</Node>
						</Node>
					</Node>
				</TreeModel>
			</Segment>
			<Segment id="5">
				<True/>
				<TreeModel functionName="regression" missingValueStrategy="nullPrediction" noTrueChildStrategy="returnLastPrediction">
					<MiningSchema>
						<MiningField name="double(x2)"/>
						<MiningField name="double(x1)"/>
						<MiningField name="double(x3)"/>
					</MiningSchema>
					<Node score="755.543405">
						<True/>
						<Node score="354.41912060000004">
							<SimplePredicate field="double(x2)" operator="lessOrEqual" value="12.5"/>
							<Node score="133.987835745">
								<SimplePredicate field="double(x3)" operator="lessOrEqual" value="25.0"/>
								<Node score="680.3693606">
									<SimplePredicate field="double(x3)" operator="lessOrEqual" value="9.0"/>
									<Node score="407.4099352">
										<SimplePredicate field="double(x1)" operator="lessOrEqual" value="8.0"/>
										<Node score="301.2901784">
											<SimplePredicate field="double(x2)" operator="lessOrEqual" value="8.5"/>
											<Node score="376.4530252">
												<SimplePredicate field="double(x1)" operator="lessOrEqual" value="3.0"/>
											</Node>
											<Node score="245.9845335">
												<SimplePredicate field="double(x2)" operator="lessOrEqual" value="6.0"/>
											</Node>
										</Node>
									</Node>
								</Node>
								<Node score="99.95252314666668">
									<SimplePredicate field="double(x1)" operator="lessOrEqual" value="4.5"/>
								</Node>
							</Node>
							<Node score="656.7432391">
								<SimplePredicate field="double(x2)" operator="lessOrEqual" value="8.5"/>
								<Node score="596.4317381">
									<SimplePredicate field="double(x1)" operator="lessOrEqual" value="4.5"/>
								</Node>
							</Node>
							<Node score="418.05766989999995">
								<SimplePredicate field="double(x1)" operator="lessOrEqual" value="4.5"/>
							</Node>
						</Node>
						<Node score="717.2404052">
							<SimplePredicate field="double(x1)" operator="lessOrEqual" value="4.5"/>
						</Node>
						<Node score="739.1221529000001">
							<SimplePredicate field="double(x1)" operator="lessOrEqual" value="8.0"/>
						</Node>
					</Node>
				</TreeModel>
			</Segment>
			<Segment id="6">
				<True/>
				<TreeModel functionName="regression" missingValueStrategy="nullPrediction" noTrueChildStrategy="returnLastPrediction">
					<MiningSchema>
						<MiningField name="double(x2)"/>
						<MiningField name="double(x1)"/>
						<MiningField name="double(x3)"/>
						<MiningField name="double(x4)"/>
					</MiningSchema>
					<Node score="717.2404052">
						<True/>
						<Node score="354.41912060000004">
							<SimplePredicate field="double(x2)" operator="lessOrEqual" value="12.5"/>
							<Node score="91.77418955">
								<SimplePredicate field="double(x3)" operator="lessOrEqual" value="25.0"/>
								<Node score="37.03504616">
									<SimplePredicate field="double(x3)" operator="lessOrEqual" value="9.0"/>
									<Node score="407.4099352">
										<SimplePredicate field="double(x1)" operator="lessOrEqual" value="7.5"/>
										<Node score="301.2901784">
											<SimplePredicate field="double(x2)" operator="lessOrEqual" value="8.5"/>
											<Node score="383.68975819999997">
												<SimplePredicate field="double(x2)" operator="lessOrEqual" value="7.0"/>
												<Node score="403.09849410000004">
													<SimplePredicate field="double(x1)" operator="lessOrEqual" value="4.5"/>
												</Node>
											</Node>
											<Node score="376.4530252">
												<SimplePredicate field="double(x1)" operator="lessOrEqual" value="3.0"/>
											</Node>
										</Node>
										<Node score="515.3731138999999">
											<SimplePredicate field="double(x1)" operator="lessOrEqual" value="4.0"/>
										</Node>
										<Node score="418.5411093">
											<SimplePredicate field="double(x1)" operator="lessOrEqual" value="6.0"/>
										</Node>
									</Node>
								</Node>
								<Node score="108.78903796">
									<SimplePredicate field="double(x1)" operator="lessOrEqual" value="4.5"/>
								</Node>
								<Node score="93.38069469">
									<SimplePredicate field="double(x1)" operator="lessOrEqual" value="7.5"/>
								</Node>
							</Node>
							<Node score="657.2481623">
								<SimplePredicate field="double(x4)" operator="lessOrEqual" value="3.5"/>
								<Node score="579.5692184">
									<SimplePredicate field="double(x1)" operator="lessOrEqual" value="4.5"/>
								</Node>
							</Node>
							<Node score="656.7432391">
								<SimplePredicate field="double(x2)" operator="lessOrEqual" value="8.0"/>
							</Node>
							<Node score="418.05766989999995">
								<SimplePredicate field="double(x1)" operator="lessOrEqual" value="4.5"/>
							</Node>
						</Node>
						<Node score="754.583259125">
							<SimplePredicate field="double(x2)" operator="lessOrEqual" value="17.0"/>
						</Node>
					</Node>
				</TreeModel>
			</Segment>
			<Segment id="7">
				<True/>
				<TreeModel functionName="regression" missingValueStrategy="nullPrediction" noTrueChildStrategy="returnLastPrediction">
					<MiningSchema>
						<MiningField name="double(x2)"/>
						<MiningField name="double(x1)"/>
						<MiningField name="double(x3)"/>
						<MiningField name="double(x4)"/>
					</MiningSchema>
					<Node score="753.3487858571428">
						<True/>
						<Node score="354.41912060000004">
							<SimplePredicate field="double(x1)" operator="lessOrEqual" value="8.5"/>
							<Node score="133.987835745">
								<SimplePredicate field="double(x4)" operator="lessOrEqual" value="5.5"/>
								<Node score="407.4099352">
									<SimplePredicate field="double(x3)" operator="lessOrEqual" value="9.0"/>
									<Node score="37.03504616">
										<SimplePredicate field="double(x2)" operator="lessOrEqual" value="8.5"/>
										<Node score="301.2901784">
											<SimplePredicate field="double(x1)" operator="lessOrEqual" value="5.0"/>
											<Node score="403.09849410000004">
												<SimplePredicate field="double(x2)" operator="lessOrEqual" value="7.0"/>
											</Node>
										</Node>
										<Node score="129.86208209066666">
											<SimplePredicate field="double(x2)" operator="lessOrEqual" value="7.0"/>
										</Node>
									</Node>
									<Node score="696.2238514999999">
										<SimplePredicate field="double(x1)" operator="lessOrEqual" value="6.5"/>
										<Node score="418.5411093">
											<SimplePredicate field="double(x1)" operator="lessOrEqual" value="5.5"/>
										</Node>
									</Node>
								</Node>
								<Node score="135.29858240000002">
									<SimplePredicate field="double(x1)" operator="lessOrEqual" value="4.5"/>
								</Node>
							</Node>
							<Node score="596.4317381">
								<SimplePredicate field="double(x2)" operator="lessOrEqual" value="8.5"/>
								<Node score="656.7432391">
									<SimplePredicate field="double(x2)" operator="lessOrEqual" value="7.5"/>
								</Node>
							</Node>
							<Node score="418.05766989999995">
								<SimplePredicate field="double(x1)" operator="lessOrEqual" value="4.5"/>
							</Node>
						</Node>
						<Node score="680.3693606">
							<SimplePredicate field="double(x1)" operator="lessOrEqual" value="9.5"/>
						</Node>
					</Node>
				</TreeModel>
			</Segment>
			<Segment id="8">
				<True/>
				<TreeModel functionName="regression" missingValueStrategy="nullPrediction" noTrueChildStrategy="returnLastPrediction">
					<MiningSchema>
						<MiningField name="double(x2)"/>
						<MiningField name="double(x1)"/>
						<MiningField name="double(x3)"/>
						<MiningField name="double(x4)"/>
					</MiningSchema>
					<Node score="751.7028215">
						<True/>
						<Node score="656.7432391">
							<SimplePredicate field="double(x2)" operator="lessOrEqual" value="8.5"/>
							<Node score="37.03504616">
								<SimplePredicate field="double(x3)" operator="lessOrEqual" value="19.0"/>
								<Node score="30.92229166">
									<SimplePredicate field="double(x2)" operator="lessOrEqual" value="7.5"/>
									<Node score="98.133622577">
										<SimplePredicate field="double(x2)" operator="lessOrEqual" value="6.5"/>
									</Node>
								</Node>
								<Node score="301.2901784">
									<SimplePredicate field="double(x1)" operator="lessOrEqual" value="6.0"/>
								</Node>
							</Node>
						</Node>
						<Node score="93.38069469">
							<SimplePredicate field="double(x1)" operator="lessOrEqual" value="9.5"/>
							<Node score="657.2481623">
								<SimplePredicate field="double(x4)" operator="lessOrEqual" value="2.0"/>
								<Node score="579.5692184">
									<SimplePredicate field="double(x1)" operator="lessOrEqual" value="4.5"/>
								</Node>
							</Node>
							<Node score="416.0763731">
								<SimplePredicate field="double(x3)" operator="lessOrEqual" value="9.0"/>
								<Node score="717.2404052">
									<SimplePredicate field="double(x1)" operator="lessOrEqual" value="4.0"/>
								</Node>
								<Node score="407.4099352">
									<SimplePredicate field="double(x1)" operator="lessOrEqual" value="8.0"/>
									<Node score="696.2238514999999">
										<SimplePredicate field="double(x1)" operator="lessOrEqual" value="6.5"/>
										<Node score="418.5411093">
											<SimplePredicate field="double(x1)" operator="lessOrEqual" value="5.5"/>
										</Node>
									</Node>
								</Node>
								<Node score="680.3693606">
									<SimplePredicate field="double(x2)" operator="lessOrEqual" value="13.5"/>
								</Node>
							</Node>
							<Node score="82.27949352">
								<SimplePredicate field="double(x1)" operator="lessOrEqual" value="4.5"/>
							</Node>
						</Node>
					</Node>
				</TreeModel>
			</Segment>
			<Segment id="9">
				<True/>
				<TreeModel functionName="regression" missingValueStrategy="nullPrediction" noTrueChildStrategy="returnLastPrediction">
					<MiningSchema>
						<MiningField name="double(x2)"/>
						<MiningField name="double(x1)"/>
						<MiningField name="double(x3)"/>
						<MiningField name="double(x4)"/>
					</MiningSchema>
					<Node score="755.543405">
						<True/>
						<Node score="354.41912060000004">
							<SimplePredicate field="double(x2)" operator="lessOrEqual" value="12.5"/>
							<Node score="91.77418955">
								<SimplePredicate field="double(x3)" operator="lessOrEqual" value="25.0"/>
								<Node score="407.4099352">
									<SimplePredicate field="double(x3)" operator="lessOrEqual" value="9.0"/>
									<Node score="2.948244036">
										<SimplePredicate field="double(x2)" operator="lessOrEqual" value="7.5"/>
										<Node score="30.92229166">
											<SimplePredicate field="double(x1)" operator="lessOrEqual" value="5.0"/>
											<Node score="245.9845335">
												<SimplePredicate field="double(x2)" operator="lessOrEqual" value="6.5"/>
												<Node score="403.09849410000004">
													<SimplePredicate field="double(x1)" operator="lessOrEqual" value="3.5"/>
												</Node>
											</Node>
										</Node>
									</Node>
									<Node score="376.4530252">
										<SimplePredicate field="double(x1)" operator="lessOrEqual" value="2.5"/>
									</Node>
									<Node score="696.2238514999999">
										<SimplePredicate field="double(x1)" operator="lessOrEqual" value="6.5"/>
										<Node score="418.5411093">
											<SimplePredicate field="double(x1)" operator="lessOrEqual" value="5.5"/>
											<Node score="515.3731138999999">
												<SimplePredicate field="double(x1)" operator="lessOrEqual" value="4.0"/>
											</Node>
										</Node>
									</Node>
								</Node>
								<Node score="147.52354943">
									<SimplePredicate field="double(x1)" operator="lessOrEqual" value="7.5"/>
									<Node score="108.78903796">
										<SimplePredicate field="double(x1)" operator="lessOrEqual" value="4.5"/>
									</Node>
								</Node>
							</Node>
							<Node score="657.2481623">
								<SimplePredicate field="double(x4)" operator="lessOrEqual" value="3.5"/>
							</Node>
							<Node score="656.7432391">
								<SimplePredicate field="double(x2)" operator="lessOrEqual" value="8.0"/>
							</Node>
							<Node score="418.05766989999995">
								<SimplePredicate field="double(x1)" operator="lessOrEqual" value="4.5"/>
							</Node>
						</Node>
						<Node score="739.1221529000001">
							<SimplePredicate field="double(x1)" operator="lessOrEqual" value="7.5"/>
							<Node score="717.2404052">
								<SimplePredicate field="double(x1)" operator="lessOrEqual" value="4.5"/>
							</Node>
						</Node>
						<Node score="416.0763731">
							<SimplePredicate field="double(x3)" operator="lessOrEqual" value="9.0"/>
						</Node>
					</Node>
				</TreeModel>
			</Segment>
			<Segment id="10">
				<True/>
				<TreeModel functionName="regression" missingValueStrategy="nullPrediction" noTrueChildStrategy="returnLastPrediction">
					<MiningSchema>
						<MiningField name="double(x2)"/>
						<MiningField name="double(x1)"/>
						<MiningField name="double(x3)"/>
						<MiningField name="double(x5)"/>
					</MiningSchema>
					<Node score="755.543405">
						<True/>
						<Node score="657.2481623">
							<SimplePredicate field="double(x5)" operator="lessOrEqual" value="4.5"/>
							<Node score="596.4317381">
								<SimplePredicate field="double(x1)" operator="lessOrEqual" value="5.5"/>
								<Node score="656.7432391">
									<SimplePredicate field="double(x2)" operator="lessOrEqual" value="7.5"/>
								</Node>
								<Node score="579.5692184">
									<SimplePredicate field="double(x1)" operator="lessOrEqual" value="3.5"/>
								</Node>
							</Node>
							<Node score="354.41912060000004">
								<SimplePredicate field="double(x5)" operator="lessOrEqual" value="1.0"/>
							</Node>
						</Node>
						<Node score="680.3693606">
							<SimplePredicate field="double(x3)" operator="lessOrEqual" value="9.0"/>
							<Node score="37.03504616">
								<SimplePredicate field="double(x2)" operator="lessOrEqual" value="8.5"/>
								<Node score="383.68975819999997">
									<SimplePredicate field="double(x2)" operator="lessOrEqual" value="6.5"/>
									<Node score="403.09849410000004">
										<SimplePredicate field="double(x1)" operator="lessOrEqual" value="4.5"/>
									</Node>
								</Node>
								<Node score="376.4530252">
									<SimplePredicate field="double(x1)" operator="lessOrEqual" value="2.5"/>
								</Node>
								<Node score="30.92229166">
									<SimplePredicate field="double(x2)" operator="lessOrEqual" value="7.5"/>
								</Node>
							</Node>
							<Node score="418.5411093">
								<SimplePredicate field="double(x1)" operator="lessOrEqual" value="5.5"/>
								<Node score="515.3731138999999">
									<SimplePredicate field="double(x1)" operator="lessOrEqual" value="4.0"/>
								</Node>
							</Node>
							<Node score="696.2238514999999">
								<SimplePredicate field="double(x1)" operator="lessOrEqual" value="6.5"/>
							</Node>
							<Node score="407.4099352">
								<SimplePredicate field="double(x1)" operator="lessOrEqual" value="8.0"/>
							</Node>
						</Node>
						<Node score="91.77418955">
							<SimplePredicate field="double(x1)" operator="lessOrEqual" value="9.5"/>
							<Node score="99.95252314666668">
								<SimplePredicate field="double(x1)" operator="lessOrEqual" value="4.5"/>
							</Node>
							<Node score="133.987835745">
								<SimplePredicate field="double(x1)" operator="lessOrEqual" value="7.5"/>
							</Node>
						</Node>
					</Node>
				</TreeModel>
			</Segment>
			<Segment id="11">
				<True/>
				<TreeModel functionName="regression" missingValueStrategy="nullPrediction" noTrueChildStrategy="returnLastPrediction">
					<MiningSchema>
						<MiningField name="double(x2)"/>
						<MiningField name="double(x1)"/>
						<MiningField name="double(x3)"/>
						<MiningField name="double(x4)"/>
					</MiningSchema>
					<Node score="752.983016">
						<True/>
						<Node score="596.4317381">
							<SimplePredicate field="double(x1)" operator="lessOrEqual" value="9.5"/>
							<Node score="91.77418955">
								<SimplePredicate field="double(x3)" operator="lessOrEqual" value="25.0"/>
								<Node score="37.03504616">
									<SimplePredicate field="double(x2)" operator="lessOrEqual" value="8.5"/>
									<Node score="376.4530252">
										<SimplePredicate field="double(x1)" operator="lessOrEqual" value="4.5"/>
										<Node score="403.09849410000004">
											<SimplePredicate field="double(x2)" operator="lessOrEqual" value="7.0"/>
										</Node>
									</Node>
									<Node score="193.319001118">
										<SimplePredicate field="double(x2)" operator="lessOrEqual" value="7.0"/>
									</Node>
								</Node>
								<Node score="416.0763731">
									<SimplePredicate field="double(x3)" operator="lessOrEqual" value="9.0"/>
									<Node score="696.2238514999999">
										<SimplePredicate field="double(x2)" operator="lessOrEqual" value="13.5"/>
										<Node score="418.5411093">
											<SimplePredicate field="double(x1)" operator="lessOrEqual" value="5.5"/>
											<Node score="515.3731138999999">
												<SimplePredicate field="double(x1)" operator="lessOrEqual" value="4.0"/>
											</Node>
										</Node>
									</Node>
								</Node>
								<Node score="135.29858240000002">
									<SimplePredicate field="double(x1)" operator="lessOrEqual" value="4.5"/>
								</Node>
								<Node score="93.38069469">
									<SimplePredicate field="double(x1)" operator="lessOrEqual" value="7.5"/>
								</Node>
							</Node>
							<Node score="418.05766989999995">
								<SimplePredicate field="double(x1)" operator="lessOrEqual" value="3.5"/>
							</Node>
							<Node score="657.2481623">
								<SimplePredicate field="double(x4)" operator="lessOrEqual" value="3.5"/>
							</Node>
						</Node>
					</Node>
				</TreeModel>
			</Segment>
			<Segment id="12">
				<True/>
				<TreeModel functionName="regression" missingValueStrategy="nullPrediction" noTrueChildStrategy="returnLastPrediction">
					<MiningSchema>
						<MiningField name="double(x2)"/>
						<MiningField name="double(x1)"/>
						<MiningField name="double(x3)"/>
						<MiningField name="double(x4)"/>
					</MiningSchema>
					<Node score="753.6231132500001">
						<True/>
						<Node score="657.2481623">
							<SimplePredicate field="double(x1)" operator="lessOrEqual" value="9.5"/>
							<Node score="416.0763731">
								<SimplePredicate field="double(x3)" operator="lessOrEqual" value="61.0"/>
								<Node score="680.3693606">
									<SimplePredicate field="double(x2)" operator="lessOrEqual" value="13.5"/>
									<Node score="37.03504616">
										<SimplePredicate field="double(x1)" operator="lessOrEqual" value="8.5"/>
										<Node score="354.41912060000004">
											<SimplePredicate field="double(x1)" operator="lessOrEqual" value="7.0"/>
											<Node score="656.7432391">
												<SimplePredicate field="double(x2)" operator="lessOrEqual" value="7.5"/>
											</Node>
											<Node score="696.2238514999999">
												<SimplePredicate field="double(x3)" operator="lessOrEqual" value="9.0"/>
												<Node score="515.3731138999999">
													<SimplePredicate field="double(x1)" operator="lessOrEqual" value="4.5"/>
													<Node score="376.4530252">
														<SimplePredicate field="double(x1)" operator="lessOrEqual" value="2.5"/>
													</Node>
												</Node>
											</Node>
											<Node score="174.5949768">
												<SimplePredicate field="double(x4)" operator="lessOrEqual" value="5.5"/>
												<Node score="135.29858240000002">
													<SimplePredicate field="double(x1)" operator="lessOrEqual" value="4.5"/>
												</Node>
											</Node>
											<Node score="596.4317381">
												<SimplePredicate field="double(x1)" operator="lessOrEqual" value="5.0"/>
											</Node>
										</Node>
									</Node>
								</Node>
								<Node score="717.2404052">
									<SimplePredicate field="double(x1)" operator="lessOrEqual" value="6.0"/>
								</Node>
							</Node>
							<Node score="579.5692184">
								<SimplePredicate field="double(x1)" operator="lessOrEqual" value="4.5"/>
							</Node>
						</Node>
					</Node>
				</TreeModel>
			</Segment>
			<Segment id="13">
				<True/>
				<TreeModel functionName="regression" missingValueStrategy="nullPrediction" noTrueChildStrategy="returnLastPrediction">
					<MiningSchema>
						<MiningField name="double(x2)"/>
						<MiningField name="double(x1)"/>
						<MiningField name="double(x3)"/>
						<MiningField name="double(x5)"/>
						<MiningField name="double(x4)"/>
					</MiningSchema>
					<Node score="416.0763731">
						<True/>
						<Node score="91.77418955">
							<SimplePredicate field="double(x2)" operator="lessOrEqual" value="12.5"/>
							<Node score="354.41912060000004">
								<SimplePredicate field="double(x1)" operator="lessOrEqual" value="7.0"/>
								<Node score="99.95252314666668">
									<SimplePredicate field="double(x1)" operator="lessOrEqual" value="3.5"/>
									<Node score="418.0576699">
										<SimplePredicate field="double(x5)" operator="lessOrEqual" value="3.5"/>
									</Node>
									<Node score="515.3731138999999">
										<SimplePredicate field="double(x3)" operator="lessOrEqual" value="9.0"/>
										<Node score="30.92229166">
											<SimplePredicate field="double(x2)" operator="lessOrEqual" value="8.5"/>
											<Node score="403.09849410000004">
												<SimplePredicate field="double(x2)" operator="lessOrEqual" value="6.5"/>
											</Node>
											<Node score="376.4530252">
												<SimplePredicate field="double(x1)" operator="lessOrEqual" value="2.5"/>
											</Node>
										</Node>
									</Node>
								</Node>
								<Node score="383.68975819999997">
									<SimplePredicate field="double(x2)" operator="lessOrEqual" value="7.0"/>
								</Node>
								<Node score="301.2901784">
									<SimplePredicate field="double(x2)" operator="lessOrEqual" value="8.5"/>
									<Node score="596.4317381">
										<SimplePredicate field="double(x5)" operator="lessOrEqual" value="3.5"/>
									</Node>
								</Node>
								<Node score="696.2238514999999">
									<SimplePredicate field="double(x4)" operator="lessOrEqual" value="5.5"/>
								</Node>
							</Node>
							<Node score="37.03504616">
								<SimplePredicate field="double(x3)" operator="lessOrEqual" value="9.0"/>
							</Node>
						</Node>
						<Node score="739.1221529000001">
							<SimplePredicate field="double(x1)" operator="lessOrEqual" value="7.5"/>
							<Node score="717.2404052">
								<SimplePredicate field="double(x1)" operator="lessOrEqual" value="4.5"/>
							</Node>
						</Node>
						<Node score="751.7028215">
							<SimplePredicate field="double(x2)" operator="lessOrEqual" value="17.0"/>
						</Node>
					</Node>
				</TreeModel>
			</Segment>
			<Segment id="14">
				<True/>
				<TreeModel functionName="regression" missingValueStrategy="nullPrediction" noTrueChildStrategy="returnLastPrediction">
					<MiningSchema>
						<MiningField name="double(x2)"/>
						<MiningField name="double(x1)"/>
						<MiningField name="double(x3)"/>
						<MiningField name="double(x5)"/>
					</MiningSchema>
					<Node score="416.0763731">
						<True/>
						<Node score="91.77418955">
							<SimplePredicate field="double(x2)" operator="lessOrEqual" value="12.5"/>
							<Node score="579.5692184">
								<SimplePredicate field="double(x5)" operator="lessOrEqual" value="4.5"/>
								<Node score="596.4317381">
									<SimplePredicate field="double(x2)" operator="lessOrEqual" value="8.5"/>
									<Node score="656.7432391">
										<SimplePredicate field="double(x2)" operator="lessOrEqual" value="7.5"/>
									</Node>
								</Node>
								<Node score="354.41912060000004">
									<SimplePredicate field="double(x5)" operator="lessOrEqual" value="1.0"/>
									<Node score="418.05766989999995">
										<SimplePredicate field="double(x1)" operator="lessOrEqual" value="4.5"/>
									</Node>
								</Node>
							</Node>
							<Node score="2.948244036">
								<SimplePredicate field="double(x2)" operator="lessOrEqual" value="7.5"/>
								<Node score="245.9845335">
									<SimplePredicate field="double(x2)" operator="lessOrEqual" value="5.0"/>
								</Node>
								<Node score="30.92229166">
									<SimplePredicate field="double(x1)" operator="lessOrEqual" value="4.5"/>
								</Node>
							</Node>
							<Node score="696.2238514999999">
								<SimplePredicate field="double(x3)" operator="lessOrEqual" value="9.0"/>
								<Node score="301.2901784">
									<SimplePredicate field="double(x1)" operator="lessOrEqual" value="5.0"/>
									<Node score="515.3731138999999">
										<SimplePredicate field="double(x1)" operator="lessOrEqual" value="3.5"/>
									</Node>
								</Node>
							</Node>
							<Node score="82.27949352">
								<SimplePredicate field="double(x1)" operator="lessOrEqual" value="4.5"/>
							</Node>
							<Node score="93.38069469">
								<SimplePredicate field="double(x1)" operator="lessOrEqual" value="7.5"/>
							</Node>
						</Node>
						<Node score="752.983016">
							<SimplePredicate field="double(x2)" operator="lessOrEqual" value="17.0"/>
						</Node>
						<Node score="739.1221529000001">
							<SimplePredicate field="double(x1)" operator="lessOrEqual" value="7.5"/>
							<Node score="717.2404052">
								<SimplePredicate field="double(x1)" operator="lessOrEqual" value="4.5"/>
							</Node>
						</Node>
					</Node>
				</TreeModel>
			</Segment>
			<Segment id="15">
				<True/>
				<TreeModel functionName="regression" missingValueStrategy="nullPrediction" noTrueChildStrategy="returnLastPrediction">
					<MiningSchema>
						<MiningField name="double(x2)"/>
						<MiningField name="double(x1)"/>
						<MiningField name="double(x3)"/>
						<MiningField name="double(x5)"/>
					</MiningSchema>
					<Node score="751.7028215">
						<True/>
						<Node score="91.77418955">
							<SimplePredicate field="double(x2)" operator="lessOrEqual" value="12.5"/>
							<Node score="656.7432391">
								<SimplePredicate field="double(x5)" operator="lessOrEqual" value="4.5"/>
								<Node score="579.5692184">
									<SimplePredicate field="double(x1)" operator="lessOrEqual" value="4.0"/>
									<Node score="418.05766989999995">
										<SimplePredicate field="double(x5)" operator="lessOrEqual" value="1.0"/>
									</Node>
								</Node>
							</Node>
							<Node score="680.3693606">
								<SimplePredicate field="double(x3)" operator="lessOrEqual" value="9.0"/>
								<Node score="37.03504616">
									<SimplePredicate field="double(x2)" operator="lessOrEqual" value="8.5"/>
									<Node score="383.68975819999997">
										<SimplePredicate field="double(x2)" operator="lessOrEqual" value="6.5"/>
										<Node score="245.9845335">
											<SimplePredicate field="double(x1)" operator="lessOrEqual" value="5.0"/>
										</Node>
									</Node>
									<Node score="30.92229166">
										<SimplePredicate field="double(x2)" operator="lessOrEqual" value="7.5"/>
									</Node>
								</Node>
								<Node score="418.5411093">
									<SimplePredicate field="double(x1)" operator="lessOrEqual" value="5.5"/>
									<Node score="515.3731138999999">
										<SimplePredicate field="double(x1)" operator="lessOrEqual" value="4.0"/>
									</Node>
								</Node>
								<Node score="696.2238514999999">
									<SimplePredicate field="double(x1)" operator="lessOrEqual" value="7.5"/>
								</Node>
							</Node>
							<Node score="82.27949352">
								<SimplePredicate field="double(x1)" operator="lessOrEqual" value="4.5"/>
							</Node>
							<Node score="133.987835745">
								<SimplePredicate field="double(x1)" operator="lessOrEqual" value="7.5"/>
							</Node>
						</Node>
						<Node score="717.2404052">
							<SimplePredicate field="double(x1)" operator="lessOrEqual" value="4.5"/>
						</Node>
						<Node score="739.1221529000001">
							<SimplePredicate field="double(x3)" operator="lessOrEqual" value="9.0"/>
						</Node>
					</Node>
				</TreeModel>
			</Segment>
			<Segment id="16">
				<True/>
				<TreeModel functionName="regression" missingValueStrategy="nullPrediction" noTrueChildStrategy="returnLastPrediction">
					<MiningSchema>
						<MiningField name="double(x2)"/>
						<MiningField name="double(x1)"/>
						<MiningField name="double(x3)"/>
						<MiningField name="double(x5)"/>
						<MiningField name="double(x4)"/>
					</MiningSchema>
					<Node score="754.7752883">
						<True/>
						<Node score="656.7432391">
							<SimplePredicate field="double(x2)" operator="lessOrEqual" value="8.5"/>
							<Node score="301.2901784">
								<SimplePredicate field="double(x3)" operator="lessOrEqual" value="19.0"/>
								<Node score="30.92229166">
									<SimplePredicate field="double(x2)" operator="lessOrEqual" value="7.5"/>
									<Node score="193.319001118">
										<SimplePredicate field="double(x2)" operator="lessOrEqual" value="6.5"/>
										<Node score="403.09849410000004">
											<SimplePredicate field="double(x1)" operator="lessOrEqual" value="3.5"/>
										</Node>
										<Node score="245.9845335">
											<SimplePredicate field="double(x2)" operator="lessOrEqual" value="5.0"/>
										</Node>
									</Node>
								</Node>
								<Node score="376.4530252">
									<SimplePredicate field="double(x1)" operator="lessOrEqual" value="3.0"/>
								</Node>
							</Node>
							<Node score="596.4317381">
								<SimplePredicate field="double(x1)" operator="lessOrEqual" value="4.5"/>
							</Node>
						</Node>
						<Node score="174.5949768">
							<SimplePredicate field="double(x2)" operator="lessOrEqual" value="12.5"/>
							<Node score="680.3693606">
								<SimplePredicate field="double(x3)" operator="lessOrEqual" value="9.0"/>
								<Node score="696.2238514999999">
									<SimplePredicate field="double(x1)" operator="lessOrEqual" value="7.5"/>
								</Node>
							</Node>
							<Node score="418.05766989999995">
								<SimplePredicate field="double(x5)" operator="lessOrEqual" value="4.5"/>
								<Node score="657.2481623">
									<SimplePredicate field="double(x4)" operator="lessOrEqual" value="3.5"/>
									<Node score="579.5692184">
										<SimplePredicate field="double(x1)" operator="lessOrEqual" value="4.5"/>
									</Node>
								</Node>
							</Node>
						</Node>
						<Node score="739.1221529000001">
							<SimplePredicate field="double(x1)" operator="lessOrEqual" value="8.0"/>
							<Node score="717.2404052">
								<SimplePredicate field="double(x1)" operator="lessOrEqual" value="4.5"/>
							</Node>
						</Node>
					</Node>
				</TreeModel>
			</Segment>
			<Segment id="17">
				<True/>
				<TreeModel functionName="regression" missingValueStrategy="nullPrediction" noTrueChildStrategy="returnLastPrediction">
					<MiningSchema>
						<MiningField name="double(x2)"/>
						<MiningField name="double(x1)"/>
						<MiningField name="double(x3)"/>
						<MiningField name="double(x5)"/>
					</MiningSchema>
					<Node score="754.2632104999999">
						<True/>
						<Node score="657.2481623">
							<SimplePredicate field="double(x2)" operator="lessOrEqual" value="12.5"/>
							<Node score="91.77418955">
								<SimplePredicate field="double(x3)" operator="lessOrEqual" value="25.0"/>
								<Node score="174.5949768">
									<SimplePredicate field="double(x1)" operator="lessOrEqual" value="7.0"/>
									<Node score="99.95252314666668">
										<SimplePredicate field="double(x1)" operator="lessOrEqual" value="3.5"/>
										<Node score="30.92229166">
											<SimplePredicate field="double(x3)" operator="lessOrEqual" value="9.0"/>
										</Node>
									</Node>
									<Node score="696.2238514999999">
										<SimplePredicate field="double(x3)" operator="lessOrEqual" value="9.0"/>
										<Node score="383.68975819999997">
											<SimplePredicate field="double(x2)" operator="lessOrEqual" value="8.5"/>
											<Node score="301.2901784">
												<SimplePredicate field="double(x1)" operator="lessOrEqual" value="5.0"/>
												<Node score="245.9845335">
													<SimplePredicate field="double(x2)" operator="lessOrEqual" value="6.0"/>
												</Node>
											</Node>
										</Node>
										<Node score="418.5411093">
											<SimplePredicate field="double(x1)" operator="lessOrEqual" value="5.5"/>
										</Node>
									</Node>
								</Node>
								<Node score="37.03504616">
									<SimplePredicate field="double(x3)" operator="lessOrEqual" value="9.0"/>
								</Node>
							</Node>
							<Node score="579.5692184">
								<SimplePredicate field="double(x1)" operator="lessOrEqual" value="4.5"/>
								<Node score="596.4317381">
									<SimplePredicate field="double(x3)" operator="lessOrEqual" value="61.0"/>
								</Node>
							</Node>
							<Node score="656.7432391">
								<SimplePredicate field="double(x5)" operator="lessOrEqual" value="1.0"/>
							</Node>
						</Node>
						<Node score="416.0763731">
							<SimplePredicate field="double(x1)" operator="lessOrEqual" value="9.5"/>
							<Node score="717.2404052">
								<SimplePredicate field="double(x1)" operator="lessOrEqual" value="6.0"/>
							</Node>
						</Node>
					</Node>
				</TreeModel>
			</Segment>
			<Segment id="18">
				<True/>
				<TreeModel functionName="regression" missingValueStrategy="nullPrediction" noTrueChildStrategy="returnLastPrediction">
					<MiningSchema>
						<MiningField name="double(x2)"/>
						<MiningField name="double(x1)"/>
						<MiningField name="double(x3)"/>
						<MiningField name="double(x5)"/>
					</MiningSchema>
					<Node score="752.983016">
						<True/>
						<Node score="91.77418955">
							<SimplePredicate field="double(x2)" operator="lessOrEqual" value="12.5"/>
							<Node score="120.45212206000001">
								<SimplePredicate field="double(x1)" operator="lessOrEqual" value="7.5"/>
								<Node score="2.948244036">
									<SimplePredicate field="double(x2)" operator="lessOrEqual" value="7.0"/>
									<Node score="245.9845335">
										<SimplePredicate field="double(x1)" operator="lessOrEqual" value="5.0"/>
									</Node>
								</Node>
								<Node score="407.4099352">
									<SimplePredicate field="double(x3)" operator="lessOrEqual" value="9.0"/>
									<Node score="301.2901784">
										<SimplePredicate field="double(x2)" operator="lessOrEqual" value="8.5"/>
										<Node score="376.4530252">
											<SimplePredicate field="double(x1)" operator="lessOrEqual" value="3.0"/>
										</Node>
									</Node>
									<Node score="515.3731138999999">
										<SimplePredicate field="double(x1)" operator="lessOrEqual" value="4.0"/>
									</Node>
									<Node score="418.5411093">
										<SimplePredicate field="double(x1)" operator="lessOrEqual" value="6.0"/>
									</Node>
								</Node>
								<Node score="354.41912060000004">
									<SimplePredicate field="double(x5)" operator="lessOrEqual" value="3.5"/>
									<Node score="596.4317381">
										<SimplePredicate field="double(x2)" operator="lessOrEqual" value="8.5"/>
									</Node>
								</Node>
								<Node score="82.27949352">
									<SimplePredicate field="double(x1)" operator="lessOrEqual" value="4.5"/>
								</Node>
							</Node>
							<Node score="37.03504616">
								<SimplePredicate field="double(x3)" operator="lessOrEqual" value="9.0"/>
							</Node>
						</Node>
						<Node score="739.1221529000001">
							<SimplePredicate field="double(x3)" operator="lessOrEqual" value="9.0"/>
						</Node>
					</Node>
				</TreeModel>
			</Segment>
			<Segment id="19">
				<True/>
				<TreeModel functionName="regression" missingValueStrategy="nullPrediction" noTrueChildStrategy="returnLastPrediction">
					<MiningSchema>
						<MiningField name="double(x2)"/>
						<MiningField name="double(x1)"/>
						<MiningField name="double(x3)"/>
						<MiningField name="double(x4)"/>
					</MiningSchema>
					<Node score="755.543405">
						<True/>
						<Node score="91.77418955">
							<SimplePredicate field="double(x2)" operator="lessOrEqual" value="12.5"/>
							<Node score="407.4099352">
								<SimplePredicate field="double(x1)" operator="lessOrEqual" value="7.5"/>
								<Node score="596.4317381">
									<SimplePredicate field="double(x1)" operator="lessOrEqual" value="5.5"/>
									<Node score="82.27949352">
										<SimplePredicate field="double(x4)" operator="lessOrEqual" value="5.5"/>
										<Node score="418.5411093">
											<SimplePredicate field="double(x3)" operator="lessOrEqual" value="9.0"/>
											<Node score="301.2901784">
												<SimplePredicate field="double(x2)" operator="lessOrEqual" value="8.5"/>
												<Node score="376.4530252">
													<SimplePredicate field="double(x1)" operator="lessOrEqual" value="2.5"/>
												</Node>
												<Node score="403.09849410000004">
													<SimplePredicate field="double(x2)" operator="lessOrEqual" value="6.5"/>
													<Node score="245.9845335">
														<SimplePredicate field="double(x2)" operator="lessOrEqual" value="5.0"/>
													</Node>
												</Node>
												<Node score="30.92229166">
													<SimplePredicate field="double(x1)" operator="lessOrEqual" value="3.5"/>
												</Node>
											</Node>
											<Node score="515.3731138999999">
												<SimplePredicate field="double(x1)" operator="lessOrEqual" value="4.0"/>
											</Node>
										</Node>
									</Node>
								</Node>
								<Node score="657.2481623">
									<SimplePredicate field="double(x1)" operator="lessOrEqual" value="6.5"/>
									<Node score="696.2238514999999">
										<SimplePredicate field="double(x3)" operator="lessOrEqual" value="45.0"/>
									</Node>
								</Node>
							</Node>
							<Node score="37.03504616">
								<SimplePredicate field="double(x1)" operator="lessOrEqual" value="8.5"/>
							</Node>
						</Node>
						<Node score="739.1221529000001">
							<SimplePredicate field="double(x1)" operator="lessOrEqual" value="8.0"/>
						</Node>
					</Node>
				</TreeModel>
			</Segment>
			<Segment id="20">
				<True/>
				<TreeModel functionName="regression" missingValueStrategy="nullPrediction" noTrueChildStrategy="returnLastPrediction">
					<MiningSchema>
						<MiningField name="double(x2)"/>
						<MiningField name="double(x1)"/>
						<MiningField name="double(x3)"/>
						<MiningField name="double(x5)"/>
					</MiningSchema>
					<Node score="751.7028215">
						<True/>
						<Node score="91.77418955">
							<SimplePredicate field="double(x2)" operator="lessOrEqual" value="12.5"/>
							<Node score="579.5692184">
								<SimplePredicate field="double(x5)" operator="lessOrEqual" value="4.5"/>
								<Node score="596.4317381">
									<SimplePredicate field="double(x2)" operator="lessOrEqual" value="8.5"/>
									<Node score="656.7432391">
										<SimplePredicate field="double(x2)" operator="lessOrEqual" value="7.5"/>
									</Node>
								</Node>
								<Node score="418.05766989999995">
									<SimplePredicate field="double(x5)" operator="lessOrEqual" value="1.0"/>
								</Node>
							</Node>
							<Node score="133.987835745">
								<SimplePredicate field="double(x1)" operator="lessOrEqual" value="8.5"/>
								<Node score="37.03504616">
									<SimplePredicate field="double(x2)" operator="lessOrEqual" value="8.5"/>
									<Node score="301.2901784">
										<SimplePredicate field="double(x1)" operator="lessOrEqual" value="5.0"/>
										<Node score="30.92229166">
											<SimplePredicate field="double(x1)" operator="lessOrEqual" value="3.5"/>
										</Node>
									</Node>
									<Node score="2.948244036">
										<SimplePredicate field="double(x2)" operator="lessOrEqual" value="7.0"/>
									</Node>
								</Node>
								<Node score="696.2238514999999">
									<SimplePredicate field="double(x3)" operator="lessOrEqual" value="9.0"/>
									<Node score="418.5411093">
										<SimplePredicate field="double(x1)" operator="lessOrEqual" value="5.5"/>
									</Node>
								</Node>
							</Node>
							<Node score="680.3693606">
								<SimplePredicate field="double(x3)" operator="lessOrEqual" value="9.0"/>
							</Node>
						</Node>
						<Node score="717.2404052">
							<SimplePredicate field="double(x1)" operator="lessOrEqual" value="4.5"/>
						</Node>
						<Node score="739.1221529000001">
							<SimplePredicate field="double(x3)" operator="lessOrEqual" value="9.0"/>
						</Node>
					</Node>
				</TreeModel>
			</Segment>
			<Segment id="21">
				<True/>
				<TreeModel functionName="regression" missingValueStrategy="nullPrediction" noTrueChildStrategy="returnLastPrediction">
					<MiningSchema>
						<MiningField name="double(x2)"/>
						<MiningField name="double(x1)"/>
						<MiningField name="double(x3)"/>
						<MiningField name="double(x5)"/>
						<MiningField name="double(x4)"/>
					</MiningSchema>
					<Node score="755.543405">
						<True/>
						<Node score="656.7432391">
							<SimplePredicate field="double(x5)" operator="lessOrEqual" value="4.5"/>
							<Node score="596.4317381">
								<SimplePredicate field="double(x1)" operator="lessOrEqual" value="4.5"/>
								<Node score="579.5692184">
									<SimplePredicate field="double(x4)" operator="lessOrEqual" value="3.5"/>
								</Node>
							</Node>
							<Node score="657.2481623">
								<SimplePredicate field="double(x4)" operator="lessOrEqual" value="3.5"/>
							</Node>
						</Node>
						<Node score="124.694764624">
							<SimplePredicate field="double(x2)" operator="lessOrEqual" value="12.5"/>
							<Node score="37.03504616">
								<SimplePredicate field="double(x3)" operator="lessOrEqual" value="9.0"/>
								<Node score="407.4099352">
									<SimplePredicate field="double(x1)" operator="lessOrEqual" value="7.5"/>
									<Node score="301.2901784">
										<SimplePredicate field="double(x2)" operator="lessOrEqual" value="8.5"/>
										<Node score="403.09849410000004">
											<SimplePredicate field="double(x1)" operator="lessOrEqual" value="3.5"/>
										</Node>
										<Node score="256.7759201453333">
											<SimplePredicate field="double(x2)" operator="lessOrEqual" value="7.0"/>
											<Node score="245.9845335">
												<SimplePredicate field="double(x2)" operator="lessOrEqual" value="5.0"/>
											</Node>
										</Node>
									</Node>
									<Node score="418.5411093">
										<SimplePredicate field="double(x1)" operator="lessOrEqual" value="6.0"/>
									</Node>
								</Node>
							</Node>
						</Node>
						<Node score="416.0763731">
							<SimplePredicate field="double(x1)" operator="lessOrEqual" value="9.5"/>
							<Node score="739.1221529000001">
								<SimplePredicate field="double(x1)" operator="lessOrEqual" value="7.5"/>
							</Node>
						</Node>
					</Node>
				</TreeModel>
			</Segment>
			<Segment id="22">
				<True/>
				<TreeModel functionName="regression" missingValueStrategy="nullPrediction" noTrueChildStrategy="returnLastPrediction">
					<MiningSchema>
						<MiningField name="double(x2)"/>
						<MiningField name="double(x1)"/>
						<MiningField name="double(x3)"/>
						<MiningField name="double(x4)"/>
					</MiningSchema>
					<Node score="596.4317381">
						<True/>
						<Node score="91.77418955">
							<SimplePredicate field="double(x3)" operator="lessOrEqual" value="25.0"/>
							<Node score="416.0763731">
								<SimplePredicate field="double(x3)" operator="lessOrEqual" value="9.0"/>
								<Node score="37.03504616">
									<SimplePredicate field="double(x2)" operator="lessOrEqual" value="8.5"/>
									<Node score="383.68975819999997">
										<SimplePredicate field="double(x2)" operator="lessOrEqual" value="6.5"/>
										<Node score="245.9845335">
											<SimplePredicate field="double(x2)" operator="lessOrEqual" value="5.0"/>
										</Node>
										<Node score="403.09849410000004">
											<SimplePredicate field="double(x1)" operator="lessOrEqual" value="4.5"/>
										</Node>
									</Node>
									<Node score="376.4530252">
										<SimplePredicate field="double(x1)" operator="lessOrEqual" value="2.5"/>
									</Node>
									<Node score="30.92229166">
										<SimplePredicate field="double(x2)" operator="lessOrEqual" value="7.5"/>
									</Node>
								</Node>
								<Node score="739.1221529000001">
									<SimplePredicate field="double(x1)" operator="lessOrEqual" value="6.5"/>
									<Node score="418.5411093">
										<SimplePredicate field="double(x2)" operator="lessOrEqual" value="13.5"/>
									</Node>
								</Node>
								<Node score="680.3693606">
									<SimplePredicate field="double(x2)" operator="lessOrEqual" value="13.5"/>
									<Node score="407.4099352">
										<SimplePredicate field="double(x1)" operator="lessOrEqual" value="8.0"/>
									</Node>
								</Node>
							</Node>
							<Node score="174.5949768">
								<SimplePredicate field="double(x1)" operator="lessOrEqual" value="7.5"/>
								<Node score="122.04381018000002">
									<SimplePredicate field="double(x1)" operator="lessOrEqual" value="4.5"/>
								</Node>
							</Node>
						</Node>
						<Node score="579.5692184">
							<SimplePredicate field="double(x1)" operator="lessOrEqual" value="3.5"/>
							<Node score="418.05766989999995">
								<SimplePredicate field="double(x3)" operator="lessOrEqual" value="61.0"/>
							</Node>
						</Node>
						<Node score="657.2481623">
							<SimplePredicate field="double(x4)" operator="lessOrEqual" value="3.5"/>
						</Node>
					</Node>
				</TreeModel>
			</Segment>
			<Segment id="23">
				<True/>
				<TreeModel functionName="regression" missingValueStrategy="nullPrediction" noTrueChildStrategy="returnLastPrediction">
					<MiningSchema>
						<MiningField name="double(x2)"/>
						<MiningField name="double(x1)"/>
						<MiningField name="double(x3)"/>
						<MiningField name="double(x5)"/>
						<MiningField name="double(x4)"/>
					</MiningSchema>
					<Node score="753.62311325">
						<True/>
						<Node score="2.948244036">
							<SimplePredicate field="double(x2)" operator="lessOrEqual" value="6.5"/>
							<Node score="245.9845335">
								<SimplePredicate field="double(x1)" operator="lessOrEqual" value="5.0"/>
							</Node>
						</Node>
						<Node score="91.77418955">
							<SimplePredicate field="double(x2)" operator="lessOrEqual" value="12.5"/>
							<Node score="354.41912060000004">
								<SimplePredicate field="double(x5)" operator="lessOrEqual" value="4.5"/>
								<Node score="656.7432391">
									<SimplePredicate field="double(x1)" operator="lessOrEqual" value="5.5"/>
									<Node score="579.5692184">
										<SimplePredicate field="double(x1)" operator="lessOrEqual" value="4.5"/>
										<Node score="596.4317381">
											<SimplePredicate field="double(x3)" operator="lessOrEqual" value="61.0"/>
										</Node>
									</Node>
								</Node>
								<Node score="657.2481623">
									<SimplePredicate field="double(x4)" operator="lessOrEqual" value="3.5"/>
								</Node>
							</Node>
							<Node score="680.3693606">
								<SimplePredicate field="double(x3)" operator="lessOrEqual" value="9.0"/>
								<Node score="301.2901784">
									<SimplePredicate field="double(x2)" operator="lessOrEqual" value="8.5"/>
									<Node score="30.92229166">
										<SimplePredicate field="double(x1)" operator="lessOrEqual" value="3.5"/>
									</Node>
								</Node>
								<Node score="515.3731138999999">
									<SimplePredicate field="double(x1)" operator="lessOrEqual" value="4.5"/>
								</Node>
								<Node score="696.2238514999999">
									<SimplePredicate field="double(x1)" operator="lessOrEqual" value="7.5"/>
								</Node>
							</Node>
							<Node score="82.27949352">
								<SimplePredicate field="double(x1)" operator="lessOrEqual" value="4.5"/>
							</Node>
							<Node score="93.38069469">
								<SimplePredicate field="double(x1)" operator="lessOrEqual" value="7.5"/>
							</Node>
						</Node>
						<Node score="717.2404052">
							<SimplePredicate field="double(x1)" operator="lessOrEqual" value="6.5"/>
						</Node>
					</Node>
				</TreeModel>
			</Segment>
			<Segment id="24">
				<True/>
				<TreeModel functionName="regression" missingValueStrategy="nullPrediction" noTrueChildStrategy="returnLastPrediction">
					<MiningSchema>
						<MiningField name="double(x2)"/>
						<MiningField name="double(x1)"/>
						<MiningField name="double(x3)"/>
					</MiningSchema>
					<Node score="354.41912060000004">
						<True/>
						<Node score="30.92229166">
							<SimplePredicate field="double(x2)" operator="lessOrEqual" value="7.5"/>
							<Node score="256.7759201453333">
								<SimplePredicate field="double(x2)" operator="lessOrEqual" value="6.5"/>
								<Node score="245.9845335">
									<SimplePredicate field="double(x2)" operator="lessOrEqual" value="5.0"/>
								</Node>
							</Node>
						</Node>
						<Node score="680.3693606">
							<SimplePredicate field="double(x3)" operator="lessOrEqual" value="9.0"/>
							<Node score="418.5411093">
								<SimplePredicate field="double(x1)" operator="lessOrEqual" value="5.5"/>
								<Node score="301.2901784">
									<SimplePredicate field="double(x2)" operator="lessOrEqual" value="8.5"/>
									<Node score="376.4530252">
										<SimplePredicate field="double(x1)" operator="lessOrEqual" value="3.0"/>
									</Node>
								</Node>
								<Node score="515.3731138999999">
									<SimplePredicate field="double(x1)" operator="lessOrEqual" value="4.0"/>
								</Node>
							</Node>
							<Node score="739.1221529000001">
								<SimplePredicate field="double(x1)" operator="lessOrEqual" value="6.5"/>
								<Node score="696.2238514999999">
									<SimplePredicate field="double(x2)" operator="lessOrEqual" value="13.5"/>
								</Node>
							</Node>
							<Node score="407.4099352">
								<SimplePredicate field="double(x1)" operator="lessOrEqual" value="8.0"/>
							</Node>
						</Node>
						<Node score="755.543405">
							<SimplePredicate field="double(x3)" operator="lessOrEqual" value="25.0"/>
							<Node score="120.45212206000001">
								<SimplePredicate field="double(x2)" operator="lessOrEqual" value="12.5"/>
								<Node score="108.78903796">
									<SimplePredicate field="double(x1)" operator="lessOrEqual" value="4.5"/>
								</Node>
							</Node>
						</Node>
						<Node score="596.4317381">
							<SimplePredicate field="double(x1)" operator="lessOrEqual" value="5.0"/>
							<Node score="579.5692184">
								<SimplePredicate field="double(x1)" operator="lessOrEqual" value="3.5"/>
							</Node>
						</Node>
					</Node>
				</TreeModel>
			</Segment>
			<Segment id="25">
				<True/>
				<TreeModel functionName="regression" missingValueStrategy="nullPrediction" noTrueChildStrategy="returnLastPrediction">
					<MiningSchema>
						<MiningField name="double(x2)"/>
						<MiningField name="double(x1)"/>
						<MiningField name="double(x3)"/>
						<MiningField name="double(x5)"/>
					</MiningSchema>
					<Node score="755.543405">
						<True/>
						<Node score="91.77418955">
							<SimplePredicate field="double(x2)" operator="lessOrEqual" value="12.5"/>
							<Node score="656.7432391">
								<SimplePredicate field="double(x5)" operator="lessOrEqual" value="4.5"/>
								<Node score="596.4317381">
									<SimplePredicate field="double(x1)" operator="lessOrEqual" value="4.5"/>
									<Node score="579.5692184">
										<SimplePredicate field="double(x1)" operator="lessOrEqual" value="3.5"/>
									</Node>
								</Node>
							</Node>
							<Node score="696.2238514999999">
								<SimplePredicate field="double(x3)" operator="lessOrEqual" value="9.0"/>
								<Node score="301.2901784">
									<SimplePredicate field="double(x2)" operator="lessOrEqual" value="8.5"/>
									<Node score="383.68975819999997">
										<SimplePredicate field="double(x2)" operator="lessOrEqual" value="6.5"/>
										<Node score="245.9845335">
											<SimplePredicate field="double(x2)" operator="lessOrEqual" value="5.0"/>
										</Node>
										<Node score="403.09849410000004">
											<SimplePredicate field="double(x1)" operator="lessOrEqual" value="4.5"/>
										</Node>
									</Node>
									<Node score="30.92229166">
										<SimplePredicate field="double(x2)" operator="lessOrEqual" value="7.5"/>
									</Node>
									<Node score="376.4530252">
										<SimplePredicate field="double(x1)" operator="lessOrEqual" value="3.0"/>
									</Node>
								</Node>
							</Node>
							<Node score="82.27949352">
								<SimplePredicate field="double(x1)" operator="lessOrEqual" value="4.5"/>
							</Node>
							<Node score="93.38069469">
								<SimplePredicate field="double(x1)" operator="lessOrEqual" value="7.5"/>
							</Node>
						</Node>
						<Node score="717.2404052">
							<SimplePredicate field="double(x1)" operator="lessOrEqual" value="4.5"/>
						</Node>
						<Node score="739.1221529000001">
							<SimplePredicate field="double(x1)" operator="lessOrEqual" value="8.0"/>
						</Node>
					</Node>
				</TreeModel>
			</Segment>
			<Segment id="26">
				<True/>
				<TreeModel functionName="regression" missingValueStrategy="nullPrediction" noTrueChildStrategy="returnLastPrediction">
					<MiningSchema>
						<MiningField name="double(x2)"/>
						<MiningField name="double(x1)"/>
						<MiningField name="double(x3)"/>
						<MiningField name="double(x5)"/>
					</MiningSchema>
					<Node score="752.4709382">
						<True/>
						<Node score="174.5949768">
							<SimplePredicate field="double(x1)" operator="lessOrEqual" value="9.5"/>
							<Node score="656.7432391">
								<SimplePredicate field="double(x5)" operator="lessOrEqual" value="4.5"/>
								<Node score="579.5692184">
									<SimplePredicate field="double(x1)" operator="lessOrEqual" value="3.5"/>
									<Node score="418.05766989999995">
										<SimplePredicate field="double(x5)" operator="lessOrEqual" value="1.0"/>
									</Node>
								</Node>
								<Node score="596.4317381">
									<SimplePredicate field="double(x1)" operator="lessOrEqual" value="4.5"/>
								</Node>
							</Node>
							<Node score="37.03504616">
								<SimplePredicate field="double(x2)" operator="lessOrEqual" value="8.5"/>
								<Node score="301.2901784">
									<SimplePredicate field="double(x1)" operator="lessOrEqual" value="5.0"/>
									<Node score="245.9845335">
										<SimplePredicate field="double(x2)" operator="lessOrEqual" value="7.5"/>
										<Node score="30.92229166">
											<SimplePredicate field="double(x1)" operator="lessOrEqual" value="3.5"/>
										</Node>
									</Node>
									<Node score="376.4530252">
										<SimplePredicate field="double(x1)" operator="lessOrEqual" value="3.0"/>
									</Node>
								</Node>
								<Node score="2.948244036">
									<SimplePredicate field="double(x1)" operator="lessOrEqual" value="7.0"/>
								</Node>
							</Node>
							<Node score="416.0763731">
								<SimplePredicate field="double(x3)" operator="lessOrEqual" value="9.0"/>
								<Node score="717.2404052">
									<SimplePredicate field="double(x1)" operator="lessOrEqual" value="4.0"/>
								</Node>
								<Node score="696.2238514999999">
									<SimplePredicate field="double(x1)" operator="lessOrEqual" value="7.5"/>
									<Node score="418.5411093">
										<SimplePredicate field="double(x1)" operator="lessOrEqual" value="5.5"/>
									</Node>
								</Node>
							</Node>
							<Node score="82.27949352">
								<SimplePredicate field="double(x1)" operator="lessOrEqual" value="4.5"/>
							</Node>
						</Node>
					</Node>
				</TreeModel>
			</Segment>
			<Segment id="27">
				<True/>
				<TreeModel functionName="regression" missingValueStrategy="nullPrediction" noTrueChildStrategy="returnLastPrediction">
					<MiningSchema>
						<MiningField name="double(x2)"/>
						<MiningField name="double(x1)"/>
						<MiningField name="double(x3)"/>
						<MiningField name="double(x5)"/>
						<MiningField name="double(x4)"/>
					</MiningSchema>
					<Node score="91.77418955">
						<True/>
						<Node score="596.4317381">
							<SimplePredicate field="double(x2)" operator="lessOrEqual" value="8.5"/>
							<Node score="37.03504616">
								<SimplePredicate field="double(x4)" operator="lessOrEqual" value="5.5"/>
								<Node score="301.2901784">
									<SimplePredicate field="double(x1)" operator="lessOrEqual" value="5.0"/>
									<Node score="403.09849410000004">
										<SimplePredicate field="double(x2)" operator="lessOrEqual" value="6.5"/>
										<Node score="245.9845335">
											<SimplePredicate field="double(x2)" operator="lessOrEqual" value="5.0"/>
										</Node>
									</Node>
									<Node score="30.92229166">
										<SimplePredicate field="double(x1)" operator="lessOrEqual" value="3.5"/>
									</Node>
								</Node>
								<Node score="2.948244036">
									<SimplePredicate field="double(x2)" operator="lessOrEqual" value="7.0"/>
								</Node>
							</Node>
							<Node score="656.7432391">
								<SimplePredicate field="double(x2)" operator="lessOrEqual" value="7.5"/>
							</Node>
						</Node>
						<Node score="717.2404052">
							<SimplePredicate field="double(x1)" operator="lessOrEqual" value="4.0"/>
							<Node score="515.3731138999999">
								<SimplePredicate field="double(x2)" operator="lessOrEqual" value="13.5"/>
								<Node score="418.05766989999995">
									<SimplePredicate field="double(x5)" operator="lessOrEqual" value="1.0"/>
								</Node>
								<Node score="579.5692184">
									<SimplePredicate field="double(x5)" operator="lessOrEqual" value="4.5"/>
								</Node>
							</Node>
						</Node>
						<Node score="416.0763731">
							<SimplePredicate field="double(x3)" operator="lessOrEqual" value="9.0"/>
							<Node score="418.5411093">
								<SimplePredicate field="double(x1)" operator="lessOrEqual" value="5.5"/>
							</Node>
							<Node score="680.3693606">
								<SimplePredicate field="double(x2)" operator="lessOrEqual" value="13.5"/>
								<Node score="696.2238514999999">
									<SimplePredicate field="double(x1)" operator="lessOrEqual" value="7.5"/>
								</Node>
							</Node>
						</Node>
						<Node score="174.5949768">
							<SimplePredicate field="double(x1)" operator="lessOrEqual" value="7.5"/>
						</Node>
					</Node>
				</TreeModel>
			</Segment>
			<Segment id="28">
				<True/>
				<TreeModel functionName="regression" missingValueStrategy="nullPrediction" noTrueChildStrategy="returnLastPrediction">
					<MiningSchema>
						<MiningField name="double(x2)"/>
						<MiningField name="double(x1)"/>
						<MiningField name="double(x3)"/>
						<MiningField name="double(x4)"/>
					</MiningSchema>
					<Node score="656.7432391">
						<True/>
						<Node score="717.2404052">
							<SimplePredicate field="double(x3)" operator="lessOrEqual" value="25.0"/>
							<Node score="91.77418955">
								<SimplePredicate field="double(x2)" operator="lessOrEqual" value="12.5"/>
								<Node score="37.03504616">
									<SimplePredicate field="double(x2)" operator="lessOrEqual" value="8.5"/>
									<Node score="376.4530252">
										<SimplePredicate field="double(x1)" operator="lessOrEqual" value="2.5"/>
									</Node>
									<Node score="193.319001118">
										<SimplePredicate field="double(x2)" operator="lessOrEqual" value="6.5"/>
										<Node score="245.9845335">
											<SimplePredicate field="double(x2)" operator="lessOrEqual" value="5.0"/>
										</Node>
									</Node>
									<Node score="30.92229166">
										<SimplePredicate field="double(x1)" operator="lessOrEqual" value="5.5"/>
									</Node>
								</Node>
								<Node score="680.3693606">
									<SimplePredicate field="double(x3)" operator="lessOrEqual" value="9.0"/>
									<Node score="418.5411093">
										<SimplePredicate field="double(x1)" operator="lessOrEqual" value="5.5"/>
										<Node score="515.3731138999999">
											<SimplePredicate field="double(x1)" operator="lessOrEqual" value="4.0"/>
										</Node>
									</Node>
									<Node score="696.2238514999999">
										<SimplePredicate field="double(x1)" operator="lessOrEqual" value="7.5"/>
									</Node>
								</Node>
								<Node score="133.987835745">
									<SimplePredicate field="double(x1)" operator="lessOrEqual" value="7.5"/>
									<Node score="108.78903796">
										<SimplePredicate field="double(x1)" operator="lessOrEqual" value="4.5"/>
									</Node>
								</Node>
							</Node>
							<Node score="755.543405">
								<SimplePredicate field="double(x2)" operator="lessOrEqual" value="17.0"/>
							</Node>
						</Node>
						<Node score="596.4317381">
							<SimplePredicate field="double(x1)" operator="lessOrEqual" value="4.5"/>
							<Node score="579.5692184">
								<SimplePredicate field="double(x1)" operator="lessOrEqual" value="3.5"/>
							</Node>
						</Node>
						<Node score="657.2481623">
							<SimplePredicate field="double(x4)" operator="lessOrEqual" value="3.5"/>
						</Node>
					</Node>
				</TreeModel>
			</Segment>
			<Segment id="29">
				<True/>
				<TreeModel functionName="regression" missingValueStrategy="nullPrediction" noTrueChildStrategy="returnLastPrediction">
					<MiningSchema>
						<MiningField name="double(x2)"/>
						<MiningField name="double(x1)"/>
						<MiningField name="double(x3)"/>
						<MiningField name="double(x4)"/>
					</MiningSchema>
					<Node score="752.983016">
						<True/>
						<Node score="656.7432391">
							<SimplePredicate field="double(x2)" operator="lessOrEqual" value="12.5"/>
							<Node score="91.77418955">
								<SimplePredicate field="double(x3)" operator="lessOrEqual" value="25.0"/>
								<Node score="680.3693606">
									<SimplePredicate field="double(x3)" operator="lessOrEqual" value="9.0"/>
									<Node score="37.03504616">
										<SimplePredicate field="double(x2)" operator="lessOrEqual" value="8.5"/>
										<Node score="301.2901784">
											<SimplePredicate field="double(x1)" operator="lessOrEqual" value="5.0"/>
											<Node score="403.09849410000004">
												<SimplePredicate field="double(x1)" operator="lessOrEqual" value="3.5"/>
												<Node score="376.4530252">
													<SimplePredicate field="double(x1)" operator="lessOrEqual" value="2.5"/>
												</Node>
											</Node>
										</Node>
										<Node score="2.948244036">
											<SimplePredicate field="double(x2)" operator="lessOrEqual" value="7.0"/>
										</Node>
									</Node>
									<Node score="696.2238514999999">
										<SimplePredicate field="double(x1)" operator="lessOrEqual" value="6.5"/>
									</Node>
									<Node score="407.4099352">
										<SimplePredicate field="double(x1)" operator="lessOrEqual" value="8.0"/>
									</Node>
								</Node>
								<Node score="174.5949768">
									<SimplePredicate field="double(x1)" operator="lessOrEqual" value="7.5"/>
								</Node>
							</Node>
							<Node score="579.5692184">
								<SimplePredicate field="double(x1)" operator="lessOrEqual" value="3.5"/>
								<Node score="418.0576699">
									<SimplePredicate field="double(x3)" operator="lessOrEqual" value="61.0"/>
								</Node>
							</Node>
							<Node score="596.4317381">
								<SimplePredicate field="double(x1)" operator="lessOrEqual" value="4.5"/>
							</Node>
							<Node score="657.2481623">
								<SimplePredicate field="double(x4)" operator="lessOrEqual" value="3.5"/>
							</Node>
						</Node>
						<Node score="739.1221529000001">
							<SimplePredicate field="double(x1)" operator="lessOrEqual" value="8.0"/>
						</Node>
					</Node>
				</TreeModel>
			</Segment>
			<Segment id="30">
				<True/>
				<TreeModel functionName="regression" missingValueStrategy="nullPrediction" noTrueChildStrategy="returnLastPrediction">
					<MiningSchema>
						<MiningField name="double(x2)"/>
						<MiningField name="double(x1)"/>
						<MiningField name="double(x3)"/>
						<MiningField name="double(x4)"/>
					</MiningSchema>
					<Node score="751.7028215">
						<True/>
						<Node score="418.0576699">
							<SimplePredicate field="double(x2)" operator="lessOrEqual" value="12.5"/>
							<Node score="91.77418955">
								<SimplePredicate field="double(x4)" operator="lessOrEqual" value="5.5"/>
								<Node score="680.3693606">
									<SimplePredicate field="double(x3)" operator="lessOrEqual" value="9.0"/>
									<Node score="301.2901784">
										<SimplePredicate field="double(x2)" operator="lessOrEqual" value="8.5"/>
										<Node score="376.4530252">
											<SimplePredicate field="double(x1)" operator="lessOrEqual" value="2.5"/>
										</Node>
										<Node score="256.7759201453333">
											<SimplePredicate field="double(x2)" operator="lessOrEqual" value="6.5"/>
											<Node score="403.09849410000004">
												<SimplePredicate field="double(x1)" operator="lessOrEqual" value="3.5"/>
											</Node>
											<Node score="245.9845335">
												<SimplePredicate field="double(x2)" operator="lessOrEqual" value="5.0"/>
											</Node>
										</Node>
										<Node score="30.92229166">
											<SimplePredicate field="double(x2)" operator="lessOrEqual" value="7.5"/>
										</Node>
									</Node>
									<Node score="418.5411093">
										<SimplePredicate field="double(x1)" operator="lessOrEqual" value="5.5"/>
										<Node score="515.3731138999999">
											<SimplePredicate field="double(x1)" operator="lessOrEqual" value="4.0"/>
										</Node>
									</Node>
									<Node score="696.2238514999999">
										<SimplePredicate field="double(x1)" operator="lessOrEqual" value="7.5"/>
									</Node>
								</Node>
								<Node score="174.5949768">
									<SimplePredicate field="double(x1)" operator="lessOrEqual" value="7.5"/>
									<Node score="135.29858240000002">
										<SimplePredicate field="double(x1)" operator="lessOrEqual" value="4.5"/>
									</Node>
								</Node>
							</Node>
							<Node score="596.4317381">
								<SimplePredicate field="double(x2)" operator="lessOrEqual" value="8.5"/>
								<Node score="656.7432391">
									<SimplePredicate field="double(x2)" operator="lessOrEqual" value="7.5"/>
								</Node>
							</Node>
						</Node>
					</Node>
				</TreeModel>
			</Segment>
			<Segment id="31">
				<True/>
				<TreeModel functionName="regression" missingValueStrategy="nullPrediction" noTrueChildStrategy="returnLastPrediction">
					<MiningSchema>
						<MiningField name="double(x2)"/>
						<MiningField name="double(x1)"/>
						<MiningField name="double(x3)"/>
					</MiningSchema>
					<Node score="754.583259125">
						<True/>
						<Node score="354.41912060000004">
							<SimplePredicate field="double(x1)" operator="lessOrEqual" value="9.5"/>
							<Node score="91.77418955">
								<SimplePredicate field="double(x3)" operator="lessOrEqual" value="25.0"/>
								<Node score="416.0763731">
									<SimplePredicate field="double(x3)" operator="lessOrEqual" value="9.0"/>
									<Node score="30.92229166">
										<SimplePredicate field="double(x2)" operator="lessOrEqual" value="8.0"/>
										<Node score="129.86208209066666">
											<SimplePredicate field="double(x2)" operator="lessOrEqual" value="6.5"/>
											<Node score="403.09849410000004">
												<SimplePredicate field="double(x1)" operator="lessOrEqual" value="3.5"/>
											</Node>
											<Node score="245.9845335">
												<SimplePredicate field="double(x2)" operator="lessOrEqual" value="5.0"/>
											</Node>
										</Node>
									</Node>
									<Node score="680.3693606">
										<SimplePredicate field="double(x2)" operator="lessOrEqual" value="13.5"/>
										<Node score="515.3731138999999">
											<SimplePredicate field="double(x1)" operator="lessOrEqual" value="4.5"/>
										</Node>
										<Node score="696.2238514999999">
											<SimplePredicate field="double(x1)" operator="lessOrEqual" value="7.5"/>
										</Node>
									</Node>
								</Node>
								<Node score="135.29858240000002">
									<SimplePredicate field="double(x1)" operator="lessOrEqual" value="4.5"/>
								</Node>
								<Node score="93.38069469">
									<SimplePredicate field="double(x1)" operator="lessOrEqual" value="7.5"/>
								</Node>
							</Node>
							<Node score="656.7432391">
								<SimplePredicate field="double(x1)" operator="lessOrEqual" value="5.5"/>
								<Node score="596.4317381">
									<SimplePredicate field="double(x1)" operator="lessOrEqual" value="4.5"/>
									<Node score="579.5692184">
										<SimplePredicate field="double(x1)" operator="lessOrEqual" value="3.5"/>
									</Node>
								</Node>
							</Node>
						</Node>
					</Node>
				</TreeModel>
			</Segment>
			<Segment id="32">
				<True/>
				<TreeModel functionName="regression" missingValueStrategy="nullPrediction" noTrueChildStrategy="returnLastPrediction">
					<MiningSchema>
						<MiningField name="double(x2)"/>
						<MiningField name="double(x1)"/>
						<MiningField name="double(x3)"/>
					</MiningSchema>
					<Node score="416.0763731">
						<True/>
						<Node score="657.2481623">
							<SimplePredicate field="double(x1)" operator="lessOrEqual" value="7.5"/>
							<Node score="108.78903796">
								<SimplePredicate field="double(x3)" operator="lessOrEqual" value="25.0"/>
								<Node score="696.2238514999999">
									<SimplePredicate field="double(x3)" operator="lessOrEqual" value="9.0"/>
									<Node score="301.2901784">
										<SimplePredicate field="double(x2)" operator="lessOrEqual" value="8.5"/>
										<Node score="30.92229166">
											<SimplePredicate field="double(x2)" operator="lessOrEqual" value="7.5"/>
											<Node score="129.86208209066666">
												<SimplePredicate field="double(x2)" operator="lessOrEqual" value="6.5"/>
												<Node score="403.09849410000004">
													<SimplePredicate field="double(x1)" operator="lessOrEqual" value="3.5"/>
												</Node>
												<Node score="245.9845335">
													<SimplePredicate field="double(x2)" operator="lessOrEqual" value="5.0"/>
												</Node>
											</Node>
										</Node>
										<Node score="376.4530252">
											<SimplePredicate field="double(x1)" operator="lessOrEqual" value="3.0"/>
										</Node>
									</Node>
									<Node score="418.5411093">
										<SimplePredicate field="double(x1)" operator="lessOrEqual" value="5.5"/>
									</Node>
								</Node>
							</Node>
							<Node score="418.05766989999995">
								<SimplePredicate field="double(x1)" operator="lessOrEqual" value="3.5"/>
							</Node>
							<Node score="596.4317381">
								<SimplePredicate field="double(x3)" operator="lessOrEqual" value="61.0"/>
							</Node>
						</Node>
						<Node score="751.7028215">
							<SimplePredicate field="double(x2)" operator="lessOrEqual" value="17.0"/>
							<Node score="680.3693606">
								<SimplePredicate field="double(x3)" operator="lessOrEqual" value="9.0"/>
							</Node>
						</Node>
					</Node>
				</TreeModel>
			</Segment>
			<Segment id="33">
				<True/>
				<TreeModel functionName="regression" missingValueStrategy="nullPrediction" noTrueChildStrategy="returnLastPrediction">
					<MiningSchema>
						<MiningField name="double(x2)"/>
						<MiningField name="double(x1)"/>
						<MiningField name="double(x3)"/>
					</MiningSchema>
					<Node score="754.583259125">
						<True/>
						<Node score="657.2481623">
							<SimplePredicate field="double(x2)" operator="lessOrEqual" value="12.5"/>
							<Node score="91.77418955">
								<SimplePredicate field="double(x3)" operator="lessOrEqual" value="25.0"/>
								<Node score="680.3693606">
									<SimplePredicate field="double(x3)" operator="lessOrEqual" value="9.0"/>
									<Node score="37.03504616">
										<SimplePredicate field="double(x2)" operator="lessOrEqual" value="8.5"/>
										<Node score="301.2901784">
											<SimplePredicate field="double(x1)" operator="lessOrEqual" value="7.0"/>
											<Node score="383.68975819999997">
												<SimplePredicate field="double(x2)" operator="lessOrEqual" value="6.5"/>
												<Node score="403.09849410000004">
													<SimplePredicate field="double(x1)" operator="lessOrEqual" value="4.5"/>
												</Node>
											</Node>
											<Node score="30.92229166">
												<SimplePredicate field="double(x2)" operator="lessOrEqual" value="7.5"/>
											</Node>
											<Node score="376.4530252">
												<SimplePredicate field="double(x1)" operator="lessOrEqual" value="3.0"/>
											</Node>
										</Node>
									</Node>
									<Node score="515.3731138999999">
										<SimplePredicate field="double(x1)" operator="lessOrEqual" value="4.5"/>
									</Node>
									<Node score="696.2238514999999">
										<SimplePredicate field="double(x1)" operator="lessOrEqual" value="7.5"/>
									</Node>
								</Node>
								<Node score="82.27949352">
									<SimplePredicate field="double(x1)" operator="lessOrEqual" value="4.5"/>
								</Node>
								<Node score="133.987835745">
									<SimplePredicate field="double(x1)" operator="lessOrEqual" value="7.5"/>
								</Node>
							</Node>
							<Node score="418.05766989999995">
								<SimplePredicate field="double(x1)" operator="lessOrEqual" value="4.0"/>
							</Node>
							<Node score="656.7432391">
								<SimplePredicate field="double(x1)" operator="lessOrEqual" value="5.5"/>
							</Node>
						</Node>
						<Node score="416.0763731">
							<SimplePredicate field="double(x1)" operator="lessOrEqual" value="9.5"/>
							<Node score="739.1221529000001">
								<SimplePredicate field="double(x1)" operator="lessOrEqual" value="7.5"/>
							</Node>
						</Node>
					</Node>
				</TreeModel>
			</Segment>
			<Segment id="34">
				<True/>
				<TreeModel functionName="regression" missingValueStrategy="nullPrediction" noTrueChildStrategy="returnLastPrediction">
					<MiningSchema>
						<MiningField name="double(x2)"/>
						<MiningField name="double(x1)"/>
						<MiningField name="double(x3)"/>
						<MiningField name="double(x5)"/>
						<MiningField name="double(x4)"/>
					</MiningSchema>
					<Node score="739.1221529000001">
						<True/>
						<Node score="91.77418955">
							<SimplePredicate field="double(x2)" operator="lessOrEqual" value="12.5"/>
							<Node score="354.41912060000004">
								<SimplePredicate field="double(x5)" operator="lessOrEqual" value="4.5"/>
								<Node score="657.2481623">
									<SimplePredicate field="double(x4)" operator="lessOrEqual" value="3.5"/>
									<Node score="579.5692184">
										<SimplePredicate field="double(x1)" operator="lessOrEqual" value="4.5"/>
									</Node>
								</Node>
								<Node score="596.4317381">
									<SimplePredicate field="double(x1)" operator="lessOrEqual" value="5.0"/>
								</Node>
							</Node>
							<Node score="680.3693606">
								<SimplePredicate field="double(x3)" operator="lessOrEqual" value="9.0"/>
								<Node score="301.2901784">
									<SimplePredicate field="double(x2)" operator="lessOrEqual" value="8.5"/>
									<Node score="245.9845335">
										<SimplePredicate field="double(x2)" operator="lessOrEqual" value="5.0"/>
									</Node>
									<Node score="383.68975819999997">
										<SimplePredicate field="double(x2)" operator="lessOrEqual" value="7.0"/>
									</Node>
									<Node score="376.4530252">
										<SimplePredicate field="double(x1)" operator="lessOrEqual" value="3.0"/>
									</Node>
								</Node>
								<Node score="418.5411093">
									<SimplePredicate field="double(x1)" operator="lessOrEqual" value="5.5"/>
								</Node>
								<Node score="696.2238514999999">
									<SimplePredicate field="double(x1)" operator="lessOrEqual" value="6.5"/>
								</Node>
								<Node score="407.4099352">
									<SimplePredicate field="double(x1)" operator="lessOrEqual" value="8.0"/>
								</Node>
							</Node>
							<Node score="82.27949352">
								<SimplePredicate field="double(x1)" operator="lessOrEqual" value="4.5"/>
							</Node>
							<Node score="93.38069469">
								<SimplePredicate field="double(x1)" operator="lessOrEqual" value="7.5"/>
							</Node>
						</Node>
						<Node score="717.2404052">
							<SimplePredicate field="double(x1)" operator="lessOrEqual" value="4.5"/>
						</Node>
						<Node score="753.62311325">
							<SimplePredicate field="double(x2)" operator="lessOrEqual" value="17.0"/>
						</Node>
					</Node>
				</TreeModel>
			</Segment>
			<Segment id="35">
				<True/>
				<TreeModel functionName="regression" missingValueStrategy="nullPrediction" noTrueChildStrategy="returnLastPrediction">
					<MiningSchema>
						<MiningField name="double(x2)"/>
						<MiningField name="double(x1)"/>
						<MiningField name="double(x3)"/>
						<MiningField name="double(x5)"/>
					</MiningSchema>
					<Node score="657.2481623">
						<True/>
						<Node score="37.03504616">
							<SimplePredicate field="double(x2)" operator="lessOrEqual" value="8.5"/>
							<Node score="596.4317381">
								<SimplePredicate field="double(x1)" operator="lessOrEqual" value="7.0"/>
								<Node score="301.2901784">
									<SimplePredicate field="double(x3)" operator="lessOrEqual" value="19.0"/>
									<Node score="403.09849410000004">
										<SimplePredicate field="double(x1)" operator="lessOrEqual" value="3.5"/>
										<Node score="376.4530252">
											<SimplePredicate field="double(x1)" operator="lessOrEqual" value="2.5"/>
										</Node>
									</Node>
									<Node score="256.7759201453333">
										<SimplePredicate field="double(x2)" operator="lessOrEqual" value="7.0"/>
										<Node score="245.9845335">
											<SimplePredicate field="double(x1)" operator="lessOrEqual" value="5.0"/>
										</Node>
									</Node>
								</Node>
							</Node>
						</Node>
						<Node score="416.0763731">
							<SimplePredicate field="double(x3)" operator="lessOrEqual" value="9.0"/>
							<Node score="739.1221529000001">
								<SimplePredicate field="double(x1)" operator="lessOrEqual" value="6.5"/>
								<Node score="696.2238514999999">
									<SimplePredicate field="double(x2)" operator="lessOrEqual" value="13.5"/>
									<Node score="418.5411093">
										<SimplePredicate field="double(x1)" operator="lessOrEqual" value="5.5"/>
										<Node score="515.3731138999999">
											<SimplePredicate field="double(x1)" operator="lessOrEqual" value="4.0"/>
										</Node>
									</Node>
								</Node>
								<Node score="717.2404052">
									<SimplePredicate field="double(x1)" operator="lessOrEqual" value="4.5"/>
								</Node>
							</Node>
							<Node score="407.4099352">
								<SimplePredicate field="double(x1)" operator="lessOrEqual" value="8.0"/>
							</Node>
							<Node score="680.3693606">
								<SimplePredicate field="double(x2)" operator="lessOrEqual" value="13.5"/>
							</Node>
						</Node>
						<Node score="147.52354943">
							<SimplePredicate field="double(x3)" operator="lessOrEqual" value="25.0"/>
						</Node>
						<Node score="418.05766989999995">
							<SimplePredicate field="double(x5)" operator="lessOrEqual" value="1.0"/>
						</Node>
					</Node>
				</TreeModel>
			</Segment>
			<Segment id="36">
				<True/>
				<TreeModel functionName="regression" missingValueStrategy="nullPrediction" noTrueChildStrategy="returnLastPrediction">
					<MiningSchema>
						<MiningField name="double(x2)"/>
						<MiningField name="double(x1)"/>
						<MiningField name="double(x3)"/>
					</MiningSchema>
					<Node score="753.62311325">
						<True/>
						<Node score="354.41912060000004">
							<SimplePredicate field="double(x2)" operator="lessOrEqual" value="12.5"/>
							<Node score="91.77418955">
								<SimplePredicate field="double(x3)" operator="lessOrEqual" value="25.0"/>
								<Node score="696.2238514999999">
									<SimplePredicate field="double(x3)" operator="lessOrEqual" value="9.0"/>
									<Node score="2.948244036">
										<SimplePredicate field="double(x2)" operator="lessOrEqual" value="8.5"/>
										<Node score="301.2901784">
											<SimplePredicate field="double(x1)" operator="lessOrEqual" value="5.0"/>
											<Node score="403.09849410000004">
												<SimplePredicate field="double(x2)" operator="lessOrEqual" value="6.5"/>
												<Node score="245.9845335">
													<SimplePredicate field="double(x2)" operator="lessOrEqual" value="5.0"/>
												</Node>
											</Node>
											<Node score="30.92229166">
												<SimplePredicate field="double(x1)" operator="lessOrEqual" value="3.5"/>
											</Node>
										</Node>
									</Node>
									<Node score="515.3731138999999">
										<SimplePredicate field="double(x1)" operator="lessOrEqual" value="4.5"/>
									</Node>
								</Node>
								<Node score="135.29858240000002">
									<SimplePredicate field="double(x1)" operator="lessOrEqual" value="4.5"/>
								</Node>
								<Node score="93.38069469">
									<SimplePredicate field="double(x1)" operator="lessOrEqual" value="7.5"/>
								</Node>
							</Node>
							<Node score="596.4317381">
								<SimplePredicate field="double(x2)" operator="lessOrEqual" value="8.5"/>
							</Node>
							<Node score="418.05766989999995">
								<SimplePredicate field="double(x1)" operator="lessOrEqual" value="4.5"/>
							</Node>
						</Node>
						<Node score="416.0763731">
							<SimplePredicate field="double(x1)" operator="lessOrEqual" value="9.5"/>
							<Node score="739.1221529000001">
								<SimplePredicate field="double(x1)" operator="lessOrEqual" value="7.5"/>
								<Node score="717.2404052">
									<SimplePredicate field="double(x1)" operator="lessOrEqual" value="4.5"/>
								</Node>
							</Node>
						</Node>
					</Node>
				</TreeModel>
			</Segment>
			<Segment id="37">
				<True/>
				<TreeModel functionName="regression" missingValueStrategy="nullPrediction" noTrueChildStrategy="returnLastPrediction">
					<MiningSchema>
						<MiningField name="double(x2)"/>
						<MiningField name="double(x1)"/>
						<MiningField name="double(x3)"/>
						<MiningField name="double(x4)"/>
					</MiningSchema>
					<Node score="596.4317381">
						<True/>
						<Node score="416.0763731">
							<SimplePredicate field="double(x3)" operator="lessOrEqual" value="25.0"/>
							<Node score="91.77418955">
								<SimplePredicate field="double(x2)" operator="lessOrEqual" value="12.5"/>
								<Node score="407.4099352">
									<SimplePredicate field="double(x3)" operator="lessOrEqual" value="9.0"/>
									<Node score="37.03504616">
										<SimplePredicate field="double(x2)" operator="lessOrEqual" value="8.5"/>
										<Node score="245.9845335">
											<SimplePredicate field="double(x1)" operator="lessOrEqual" value="5.0"/>
											<Node score="403.09849410000004">
												<SimplePredicate field="double(x1)" operator="lessOrEqual" value="3.5"/>
												<Node score="376.4530252">
													<SimplePredicate field="double(x1)" operator="lessOrEqual" value="2.5"/>
												</Node>
											</Node>
										</Node>
										<Node score="2.948244036">
											<SimplePredicate field="double(x2)" operator="lessOrEqual" value="7.0"/>
										</Node>
									</Node>
									<Node score="696.2238514999999">
										<SimplePredicate field="double(x1)" operator="lessOrEqual" value="6.5"/>
										<Node score="515.3731138999999">
											<SimplePredicate field="double(x1)" operator="lessOrEqual" value="4.5"/>
										</Node>
									</Node>
								</Node>
								<Node score="108.78903796">
									<SimplePredicate field="double(x1)" operator="lessOrEqual" value="4.5"/>
								</Node>
								<Node score="93.38069469">
									<SimplePredicate field="double(x1)" operator="lessOrEqual" value="7.5"/>
								</Node>
							</Node>
							<Node score="755.543405">
								<SimplePredicate field="double(x2)" operator="lessOrEqual" value="17.0"/>
							</Node>
							<Node score="739.1221529000001">
								<SimplePredicate field="double(x1)" operator="lessOrEqual" value="7.5"/>
							</Node>
						</Node>
						<Node score="579.5692184">
							<SimplePredicate field="double(x1)" operator="lessOrEqual" value="3.5"/>
							<Node score="418.05766989999995">
								<SimplePredicate field="double(x3)" operator="lessOrEqual" value="61.0"/>
							</Node>
						</Node>
						<Node score="657.2481623">
							<SimplePredicate field="double(x4)" operator="lessOrEqual" value="3.5"/>
						</Node>
					</Node>
				</TreeModel>
			</Segment>
			<Segment id="38">
				<True/>
				<TreeModel functionName="regression" missingValueStrategy="nullPrediction" noTrueChildStrategy="returnLastPrediction">
					<MiningSchema>
						<MiningField name="double(x2)"/>
						<MiningField name="double(x1)"/>
						<MiningField name="double(x3)"/>
					</MiningSchema>
					<Node score="751.7028215">
						<True/>
						<Node score="657.2481623">
							<SimplePredicate field="double(x2)" operator="lessOrEqual" value="12.5"/>
							<Node score="91.77418955">
								<SimplePredicate field="double(x3)" operator="lessOrEqual" value="25.0"/>
								<Node score="37.03504616">
									<SimplePredicate field="double(x2)" operator="lessOrEqual" value="8.5"/>
									<Node score="301.2901784">
										<SimplePredicate field="double(x1)" operator="lessOrEqual" value="5.0"/>
										<Node score="403.09849410000004">
											<SimplePredicate field="double(x2)" operator="lessOrEqual" value="6.5"/>
											<Node score="245.9845335">
												<SimplePredicate field="double(x2)" operator="lessOrEqual" value="5.0"/>
											</Node>
										</Node>
										<Node score="30.92229166">
											<SimplePredicate field="double(x1)" operator="lessOrEqual" value="3.5"/>
										</Node>
									</Node>
									<Node score="2.948244036">
										<SimplePredicate field="double(x2)" operator="lessOrEqual" value="7.0"/>
									</Node>
								</Node>
								<Node score="407.4099352">
									<SimplePredicate field="double(x3)" operator="lessOrEqual" value="9.0"/>
									<Node score="696.2238514999999">
										<SimplePredicate field="double(x1)" operator="lessOrEqual" value="6.5"/>
										<Node score="515.3731138999999">
											<SimplePredicate field="double(x1)" operator="lessOrEqual" value="4.5"/>
										</Node>
									</Node>
								</Node>
								<Node score="99.95252314666668">
									<SimplePredicate field="double(x1)" operator="lessOrEqual" value="6.0"/>
								</Node>
							</Node>
							<Node score="656.7432391">
								<SimplePredicate field="double(x2)" operator="lessOrEqual" value="8.0"/>
							</Node>
							<Node score="354.41912060000004">
								<SimplePredicate field="double(x3)" operator="lessOrEqual" value="61.0"/>
								<Node score="418.05766989999995">
									<SimplePredicate field="double(x1)" operator="lessOrEqual" value="4.5"/>
								</Node>
							</Node>
							<Node score="579.5692184">
								<SimplePredicate field="double(x1)" operator="lessOrEqual" value="4.5"/>
							</Node>
						</Node>
						<Node score="416.0763731">
							<SimplePredicate field="double(x1)" operator="lessOrEqual" value="9.5"/>
							<Node score="739.1221529000001">
